svm_type c_svc
kernel_type rbf
gamma 2
nr_class 2
total_sv 94
rho -7.5971571813422205
label 1 -1
nr_sv 46 48
SV
32768 1:-1 2:-1 
32768 1:-0.975952 2:-0.975687 
32768 1:-0.963928 2:-0.963216 
32768 1:-0.95992 2:-0.959148 
32768 1:-0.947896 2:-0.947227 
32768 1:-0.93988 2:-0.938845 
7739.5490348463991 1:-0.843687 2:-0.84216 
32768 1:-0.839679 2:-0.838683 
32768 1:-0.835671 2:-0.834562 
32768 1:-0.775551 2:-0.774266 
32768 1:-0.771543 2:-0.770278 
32768 1:-0.755511 2:-0.753796 
32768 1:-0.751503 2:-0.75057 
32768 1:-0.715431 2:-0.713955 
32768 1:-0.61523 2:-0.613396 
32768 1:-0.543086 2:-0.540961 
32768 1:-0.53507 2:-0.532542 
32768 1:-0.531062 2:-0.528686 
32768 1:-0.523046 2:-0.520743 
17720.282749804646 1:-0.458918 2:-0.456084 
32768 1:-0.442886 2:-0.440225 
32768 1:-0.406814 2:-0.403846 
32768 1:-0.350701 2:-0.347732 
32768 1:-0.342685 2:-0.339678 
32768 1:-0.310621 2:-0.307591 
32768 1:-0.282565 2:-0.279357 
32768 1:-0.234469 2:-0.230787 
32768 1:-0.226453 2:-0.22295 
18451.790727448566 1:-0.130261 2:-0.125784 
32768 1:-0.11022 2:-0.106541 
32768 1:-0.0821643 2:-0.0779659 
32768 1:-0.0541082 2:-0.0492374 
32768 1:-0.0340681 2:-0.0300858 
32768 1:0.0260521 2:0.0306551 
32768 1:0.234469 2:0.240135 
32768 1:0.286573 2:0.29216 
32768 1:0.41483 2:0.421345 
32768 1:0.47495 2:0.482493 
32768 1:0.511022 2:0.518151 
28244.55529509583 1:0.675351 2:0.682894 
32768 1:0.695391 2:0.702753 
32768 1:0.739479 2:0.747185 
32768 1:0.791583 2:0.799485 
32768 1:0.947896 2:0.957473 
32768 1:0.951904 2:0.961652 
10658.26303037244 1:0.955912 2:0.966196 
-29552.577435196268 1:-0.995992 2:-0.997704 
-32768 1:-0.987976 2:-0.988791 
-32768 1:-0.983968 2:-0.984472 
-32768 1:-0.943888 2:-0.944087 
-32768 1:-0.931864 2:-0.932236 
-32768 1:-0.923848 2:-0.92401 
-32768 1:-0.867735 2:-0.867905 
-32768 1:-0.863727 2:-0.863674 
-32768 1:-0.803607 2:-0.803466 
-32768 1:-0.783567 2:-0.782869 
-32768 1:-0.739479 2:-0.739168 
-32768 1:-0.735471 2:-0.734742 
-30438.601050182901 1:-0.699399 2:-0.698963 
-32768 1:-0.675351 2:-0.674388 
-32768 1:-0.603206 2:-0.60175 
-22907.472542914384 1:-0.55511 2:-0.554056 
-32768 1:-0.539078 2:-0.537409 
-32768 1:-0.519038 2:-0.517427 
-32768 1:-0.438878 2:-0.437174 
-32768 1:-0.430862 2:-0.429308 
-32768 1:-0.422846 2:-0.420813 
-32768 1:-0.386774 2:-0.384353 
-32768 1:-0.374749 2:-0.372453 
-32768 1:-0.338677 2:-0.336116 
-32768 1:-0.270541 2:-0.268243 
-32768 1:-0.254509 2:-0.252205 
-32768 1:-0.186373 2:-0.183475 
-32768 1:-0.158317 2:-0.155679 
-4400.8346526086898 1:-0.150301 2:-0.147681 
-32768 1:-0.106212 2:-0.103167 
-32768 1:-0.0661323 2:-0.0625002 
-20853.143340660503 1:-0.0501002 2:-0.0470488 
-32768 1:-0.0220441 2:-0.0186201 
-32768 1:-0.00200401 2:0.00154487 
-32768 1:0.230461 2:0.234766 
-32768 1:0.322645 2:0.327628 
-6107.1054738166749 1:0.362725 2:0.367792 
-32768 1:0.374749 2:0.380087 
-32768 1:0.466934 2:0.472489 
-3279.3988817362924 1:0.51503 2:0.520397 
-32768 1:0.611222 2:0.617719 
-32768 1:0.663327 2:0.669851 
-32768 1:0.699399 2:0.705508 
-32768 1:0.743487 2:0.749389 
-7772.153531924364 1:0.823647 2:0.830036 
-23039.153928527958 1:0.895792 2:0.902954 
-32768 1:0.943888 2:0.951556 
-32768 1:0.95992 2:0.967829 
